-0.20153047775297034 0.19149792071753757 0.14538683409782932 -0.13500062689276227 -0.002516080729108583 -0.027839426751930185 0.08355475011640567 0.1591380327438925 0.5009324481162789 -0.350636534845475 0.07644020640526196 -0.12772925033705884 0.8693512902724752 -0.2744283164945954 -0.030101391060204624 0.0314361281790526 -0.16745466282372562 0.24542352480419133 0.2033037880792445 -0.3494005140204898 -0.2615639220553622 0.022825654473384915 0.133423251521419 -0.06547764092602207 -0.15620424964484286 -0.0429276499333327 -0.3682086942288586 -0.1533975016269208 -0.052189305080679094 -0.09298012165856143 -0.14711804683517973 -0.1483405098904722 -0.15500177700332113 -0.11293761141963465 -0.1338221001162562 -0.2816987664236392 0.8928995542653793 -0.07750982250735339 -0.03019665893020244 -0.28174785368003163 0.9783131330876929 0.1804404021347519 -0.20895721025919212 -0.09221477572097839 0.12207738919497613 0.11640431100854637 0.24055656087289418 -0.0429329278075688 0.07328227984571041
0.09386872484639852 -0.10837900094527136 0.04827252563185358 0.21081410810330808 0.19081648883964963 0.0029123270047342054 0.04905610921113174 -0.25655924050301293 0.48361074061805265 -0.043520484732755965 -0.06587038200074952 -0.38767444848110383 0.6523036891104205 0.11191165284992777 0.09617279551037056 -0.2765042092809576 0.15515809490607602 0.004644497086112864 0.3422726316670255 -0.1959024383389042 -0.05883547044608009 -0.005680707402781537 -0.27793017197623204 -0.25161987850836565 0.11209978461550724 0.26632256267551896 0.032718724178009535 -0.05864553915213014 0.007104762814603669 -0.20620939408299466 0.26571015966653017 0.14910647204343602 0.021836276088632922 -0.008859347314113985 0.04118242284532633 0.19639175840115808 1.063598175437168 0.024236684690675157 -0.04116782236527059 -0.14581025661731845 0.8406625121830227 0.4407536712911819 -0.27244237929896764 0.15634459602381656 0.17664486556203723 0.212853787325527 0.13256025076186306 0.1703911909930627 -0.008347057979566886
0.03381912081511573 -0.040737210168863586 -0.244655186134361 0.20394155151806925 0.03858211066981443 -0.1654419844893529 0.0026018189983821327 -0.008308950330752352 -0.030677022888096744 -0.23246914288412912 0.023127506885238742 -0.07956593788706859 0.11023858776207106 -0.023068573670858517 -0.26016992440471304 -0.2966664658586204 -0.028364664552183956 0.046552995338464076 0.3485297041773798 0.016862415432303067 0.16375371602218441 0.17441339759887714 -0.132957772466257 0.1883623201746698 0.09541641080061258 -0.22971228050609196 -0.2644707835183716 -0.26756398573855833 0.2904233430384521 -0.285668147830097 -0.21524137681307462 0.0687881949147961 -0.08575073422444673 -0.3849044012403069 -0.038057538859224374 0.1646409509114589 0.01489541552576803 -0.12324579295033053 0.11854259816991705 -0.02304864507711241 0.09969794912403201 0.13509262372385808 -0.26256226205714267 -0.0625272569954271 -0.04358790436575949 -0.1719459515139532 -0.21564204749433155 0.22037126318683908 0.0074945401229075765
-0.16034271897551206 0.05823123301582189 0.17474537105851434 -0.26411463859235396 -0.265742591895475 -0.1948626008643866 0.12061735392349915 -0.1872751624588445 -0.040857919521704165 -0.11102394543641163 -0.02653448074060233 -0.3632299125131589 0.10850526386826972 0.1641468687542495 0.009149292779528084 -0.3617990360030276 0.23991073637779842 -0.05792993148229261 0.1998618734402362 -0.30775599210012555 0.07217561362039454 -0.24318804955706172 -0.1621773624148295 0.2578981298149982 0.2069863092836517 -0.10671548467377773 0.14643200350869334 -0.10452344488598586 0.40018345934602545 -0.07483009592358954 -0.046204025897041257 -0.13649482895359716 -0.2709149910414193 -0.0004894991666788588 -0.0966331320970653 0.33411134003675796 0.2591803451428058 -0.012436219198591152 -0.23222597538831424 0.15153958393442812 0.26555974343079836 0.27051034754097936 0.004891015875060023 -0.067260924894459 -0.08436836788140198 -0.16217772105368594 0.09598935442757872 -0.036956435223709394 -0.21976849261396159
-0.21803276642003006 0.09147218077595937 -0.11240030811721971 -0.00011027851230588359 -0.09626567710542239 0.2048296938370852 0.22029397106266396 -0.2656166681611408 -0.9976688751863727 -0.2342958455687611 0.40587853434685534 0.016468031608531386 -0.9214725401371903 -0.15817173595577033 0.09615584083813122 0.04678321836378932 0.5149899253971051 -0.08606658654055399 0.4875444068846828 -0.03621920444432218 -0.008543967014664033 0.2676015787139557 -0.008833101040519473 0.12427150782768176 -0.22891522570388287 -0.1820574064130791 0.36395485009103673 -0.15820568930205564 0.4195967943053979 -0.08411733997469169 0.18802464822027676 -0.07269600268455612 -0.08803130540697873 -0.2544278615373363 0.47929140604823894 0.33409049775908156 -0.3056035798856579 0.3508794254002923 -0.06356204680431464 0.16563137349622487 -0.7741229870855932 0.022760365189790892 -0.23524650646385553 0.2018240361065533 0.15880352133267228 0.18106534798316076 -0.08769385803217492 0.06348803638128864 0.29280645602729943
-0.06722190450839058 0.03901323773827087 -0.1522827951555146 -0.23053401863529227 -0.1285768553030009 0.21538289466832883 0.03552169306044478 0.23428779854991327 -0.4379124066021576 0.11753138779039293 0.11600495501131378 0.4210020823606615 -0.6834003194992353 0.09392718976236303 -0.22505538380384954 0.028196268744008268 -0.07029795064960308 -0.25352902409835326 -0.42604311567218317 0.5094057510985706 -0.043535593018055124 -0.2118959710200708 -0.22552230269150625 -0.142523515937206 0.1344910307803992 -0.21890918220577726 0.1842131288256954 -0.06709092156774396 -0.023335377302034405 0.46589807091274604 -0.11352972093879177 -0.13591497082125825 -0.012671535175646509 0.019943281357463323 -0.1987279245936843 -0.5362860153894481 -0.9669687937189886 0.2237983146880166 -0.15487975759013062 0.011036352261911313 -0.7248150305326513 -0.3854502172595218 -0.24088430422445725 0.22785269049104434 0.2589508619200261 0.25894161737003213 -0.21420864357974745 -0.1569792763225568 0.022741304208550566
0.2645395939397093 0.023652821289340487 0.10372612993504454 0.08919961804324844 -0.13278656252109894 0.02293026266017595 -0.10620040998421801 -0.13978916967798066 -0.38031332208514107 -0.26444812798379164 0.23911361337826664 -0.17233768902285446 -0.06578798776937703 0.07907538371880496 0.2429232847193779 -0.20398837791648552 0.009813119826413986 -0.09522077552156102 0.015297813082440794 0.047710597451460404 0.21688877851502558 -0.10868720949638974 -0.1186249462581387 0.024376086598320745 0.04353505492882409 0.052892465305652725 -0.16780955924712504 -0.2643594058664045 -0.024924886927468293 -0.37934630031624694 0.028222947442038404 -0.2365015676210852 -0.2341792195407491 -0.06900287085545492 0.0010148022115409464 0.2773552998263861 -0.03697784060589276 0.1725711086709401 -0.21792180853295123 -0.02652516525070475 0.12932501331053556 -0.11678001824431686 0.2476046768367312 -0.18010184438763616 0.15224038514966698 0.2672640599245673 0.17723144754917858 -0.09933113879327074 -0.2439935660391069
0.007913955755878 0.2311404258125503 -0.11382410005131108 0.2170312868511205 -0.1974978355646497 0.22624857284099292 -0.25808373575858745 -0.10137894515978335 -0.09407826179927259 0.3583549042485353 0.24934488538189026 0.3786725700487427 -0.1805600030218595 0.10450074000910459 -0.17739403940873796 0.15374746059471123 -0.35450511235202387 0.11840656648362258 -0.0734693540122802 0.05450693772479306 -0.24008542464332913 0.25540822237989086 0.1948327284159958 0.027156514789661024 0.022806462000923067 0.19362487868566514 -0.0008041076644509984 -0.05748213505281363 -0.25486740604415453 0.05747375647066508 -0.262135691320002 0.08071390644301363 -0.045922032335606294 0.22979111606574387 -0.4071841465268165 -0.24589736644140658 -0.6815670361179 -0.18169015232781494 -0.10784111062015887 0.2062320607233643 -0.5385290039844327 -0.22046671376671745 0.061977196394953415 -0.14687266060159518 -0.27146787211799805 0.015819774895015903 0.0004958507373648002 0.08203714672322854 -0.009067769997510338
0.10280198181795003 0.12755474601693967 -0.14420218990585237 -0.0027160682495025457 -0.011670159147318948 -0.1515398000943214 -0.048368023293858586 0.03329526430653057 0.3737466353228169 0.1512630254026427 -0.19373145064568778 0.0017331005428058578 -0.09957337021641102 -0.23615155802643256 0.006444215870372305 0.12906018466511526 -0.17856678018317249 0.14662877088941845 0.22023374756312483 -0.18269838803030825 0.1061332116626923 0.1923563177663783 -0.140603947895707 0.11094262682468847 0.13030852485206107 0.05212922939701076 0.12653165278308343 0.21859970504242754 0.26271264093347435 -0.03970584834626439 -0.1784296870551341 -0.13746638722657464 -0.15564243840329733 -0.04065130899983272 0.15119345994321373 -0.23772722785249553 0.25869169568875366 0.04984959788540149 -0.15362984591301335 -0.061542126868123624 -0.026178338391788677 0.1358409605828341 -0.25315138407117027 0.26523858291146324 0.16973188951963558 0.07079802112972772 -0.12813447871793257 0.22756104715420128 0.1833921379606537
-0.19890581380479008 0.15199139992494504 0.1884648538091645 0.08803273368399256 0.11046040290377201 -0.03028243213915921 0.23386923406802146 0.25971934295010685 -0.15160889840944233 -0.1333562216105813 -0.1072177404307355 -0.4849844194186747 -0.1829632444231353 -0.20595873715261281 0.22536838829961775 -0.04697967224297745 0.020062662396744396 0.05549212024437611 0.17937377292123438 -0.5107047049377292 -0.11272944877093954 -0.1387776611270271 0.06731573093671415 -0.2733794779592176 -0.17095416181359896 -0.03374695234639449 -0.3342408531528942 0.07028988248639878 0.28817825691383736 -0.11537633493357295 -0.16171249442323266 -0.1186236945970072 0.023336573543461914 -0.4251972992077804 0.2772156217250457 0.09265035659746763 0.24435022748815277 0.09019729383724219 0.0998781345731878 0.19080132037077804 0.16820486962051745 0.22489292945898565 0.1960528373436482 0.14830409211032708 0.038882665697623664 -0.06434654208133964 -0.11902835193905104 -0.2159851469798186 0.09926879004164803
-0.2105106671878047 0.1362872204809767 0.02496125909475272 0.2562677548093118 0.14389371473637103 0.26099380838792435 -0.20030147766249773 0.00020474829829231211 0.05907674490860949 0.15033216603083238 -0.0045619828300681444 0.17544787437949433 0.03472331083712566 -0.27512353714006893 -0.031795085742257645 0.2265604969868506 -0.3681901254708895 -0.05544701799825516 -0.10456811266240047 0.35545945160496145 -0.004244550491727506 0.08139152379983544 -0.07372067547008046 -0.16319613689472223 -0.27345294896036026 -0.12257033040017523 0.04787254732529115 0.2103643092990679 -0.07902985313631467 0.26040728659404117 0.26843381115152404 -0.02117573176624049 0.18442065370916266 0.20418993404770897 -0.12576460582699894 0.008150254593947293 -0.34882074872505253 -0.18794982595294493 0.059926545683973646 0.010828949081089312 -0.3190100305170662 -0.5342490803244639 -0.06109114174304128 -0.04085913497918919 -0.05222299772714423 0.199110558888134 0.04653489260725735 0.12888244805830507 0.21308545832922535
0.13711852344651687 -0.0040224702932073475 0.13546216483758994 0.07736084467000387 0.08198524905887888 0.07147423786788021 -0.051260142642741674 0.07124642079237786 -0.7431221066933331 0.1239968010920121 0.28494508374443733 0.07392231567104295 -0.6693924912216926 0.17380075824546726 0.05812857865434101 -0.19991295041981974 0.1164282549877137 0.11465611544142412 0.4522935838943986 -0.09254526216724675 -0.19177146833860825 0.18352873652323576 0.12073221208140603 -0.018132315926871978 -0.2505722156988978 0.005666621079220557 0.2641513219337133 -0.04266240335564986 0.16636172824966225 -0.030484364888115522 -0.26470810385512794 0.003948418877209092 0.24589555384969736 -0.011962541585928417 0.19212733549598912 0.35030695573538917 -0.5127773496939195 -0.031202106232341598 -0.031853081236610445 0.3420204762800771 -0.6979317445415709 0.011870577433872919 0.18226229722331994 0.012786105043632923 -0.0726407930508195 0.0063489793960480045 0.13047805172669263 -0.1826860439011465 0.21361893179495187
0.11764183224712577 0.17362304842044068 -0.12690293207279496 0.0604456967249245 -0.14765300495221756 0.03364649665882541 -0.1805864052776922 0.1597136137244195 0.2774542337123967 0.08117954460628508 -0.1708039459285547 0.4307063999112731 0.18925052724286703 0.18949101747645086 -0.2587591887033546 0.39521321810981774 -0.12533537198258202 -0.1011251405371465 -0.23043759006001607 0.3192606792662967 0.1573128637147322 -0.17091989823169507 0.051633928799913346 -0.18429773342433142 0.2607347803234556 -0.031099375214410585 0.20996456737742908 0.12580524870797638 -0.13426013654173505 0.043887083517786654 0.01465711012472709 -0.19918494005487458 -0.19947251642633557 0.29399288927650313 -0.26939258421886136 -0.0542751285660954 -0.2605352464961185 0.10249204861874672 0.10266775547266455 -0.12495841628701618 -0.3344527535844053 -0.24959531579793326 -0.004210174917414489 -0.22048551414168996 -0.1726503817865792 -0.2450852400491745 0.05374736017045262 0.2143400629394609 -0.17397915755272159
-0.25645583630668917 0.11239825084567107 0.17357185215181686 0.2558137261026004 0.062381779880617716 -0.08684190095779382 0.18622583517347763 -0.21051310632660433 -0.3221232258160451 -0.12234723186337497 -0.011786833306820128 0.09800944262416582 -0.4956025386485959 -0.18266180808792595 -0.14787158338186387 0.27721243900114095 -0.07788694676104112 0.04405719072285491 -0.21605013136198398 0.21922025272226023 -0.0936356725914978 0.05160052964956746 0.26919354255648764 0.27249889620024487 -0.2501147992219012 0.1639439548071872 0.24058781145153504 -0.09944664678707826 -0.12166603172455724 0.14498684935015316 0.23085562746669824 -0.05515718326026062 0.20946436512350197 0.24326566281239884 -0.24891906117467572 0.17075183230676538 -0.7527817225822423 -0.1520768548371708 0.13433353465846626 -0.20061282011980688 -0.551982615824031 -0.2612071510921569 -0.020454625264855253 0.187389772472216 0.2238248640008958 -0.2560390328605301 -0.24204896227410536 0.18774456129072026 -0.20849737179896197
-0.12479212252458702 -0.21086056221976307 -0.22541112288050852 -0.26036399115896797 0.07579418230671442 0.13482606525568308 0.10294432134263426 0.19049975617920267 0.6918268945874768 0.05982763525288478 -0.13664973439440595 0.3794519810939546 0.6800245942803168 -0.14160224959786596 -0.24241696247610686 0.3604755704457523 -0.2796312064938113 -0.08288908368700287 -0.2714422126171505 0.15383421086881927 0.012220599026087797 -0.24207493083882076 -0.2897866045561421 -0.048145407896362596 -0.1657016333035935 0.20950573791648808 -0.2507123517126665 0.08950344763012996 -0.21180819800997863 0.2547138667806558 0.12187394011274416 0.1390118417311288 -0.13692331940929783 0.3832048812527499 -0.5218661920788026 -0.09876101676596646 0.46789615770197984 -0.014783523701663265 -0.45536953508973094 -0.4342005263333863 0.44501510971383307 -0.3465049320666255 -0.07151361964975708 0.26714919497449213 -0.2534769937532925 0.017342853437768868 -0.03122437150449356 -0.20492635371833517 -0.2666587734302634
0.11445073415765522 0.21072405019017026 -0.26201927771141886 0.013509135732101163 -0.2257755133956873 0.16557034141084087 -0.22830614671365984 -0.2567425123072448 -0.6213047922382128 0.07779428200674451 0.009376249251535207 -0.25434643689236053 -0.3951365009268375 0.16916728921883012 0.19614218277317214 -0.15858496195283753 0.12131397100623921 -0.14033549857306818 0.1942608322232191 -0.14405441854854065 -0.08892526089063577 0.15632595836896357 0.3638331792263996 0.04637631429920691 -0.2178874167025704 0.0840959850942733 0.08400855448651058 0.26899183061788984 0.2836641510087323 0.13411363858312822 0.11094460956742253 0.019632421440270886 0.2187176686047948 0.13236693165546062 0.04772920837250032 -0.026290719959906093 -0.46621169340775576 0.12395021293017837 -0.10958268120781924 0.027109083132647028 -0.3534660894720394 -0.08882590368665748 0.17359286181523637 0.08329242948146087 -0.1027119731699433 -0.11116108954314302 -0.08123477827818884 -0.0962970714862082 0.2493080479809418
0.0005825168563760585 0.014401404419462971 -0.19359777984015802 0.2284181912513788 -0.09614040873103874 -0.09504272416530735 -0.2376426321895183 0.26424123886955847 0.1322318076353983 0.4454472149360392 0.17779916741108084 0.47679129246093194 0.3173899156672894 0.23449505429640566 0.2327566923496865 0.3839814369321685 -0.47717917157756484 0.013069385703296077 -0.23409699610532203 0.4893280539597266 0.1565062661693119 0.1118430061278517 0.07805342767941392 -0.07629532639162065 0.24379361480051104 0.07909456987303953 -0.11159291517470804 -0.019527376188673506 -0.011337800558965596 0.23558260010451285 -0.18310277435369132 -0.19381908057535951 0.10320382714307552 0.25247463364672434 -0.05154551902886142 -0.4496097159057473 -0.1813412571828449 0.06775255747855946 -0.30586648012098855 -0.27879405237445704 -0.10715316695168713 -0.4048932455373726 -0.21664744966023083 -0.13134711826511142 0.07283329409988604 0.014538669589936992 -0.2323234198373762 -0.2354570418305356 0.13536381541999795
0.07895020023584348 -0.18003286449785472 0.1994350696976761 -0.2635462223300578 -0.0726977703238329 0.1916059516953567 0.11590088852449015 -0.11919097153908562 0.6035601376425034 -0.043211101462815545 0.07142822977078417 0.11922960331431777 0.34680068312212414 0.0967870876630042 0.024514377523315922 0.1478588291705676 0.13158554086902163 0.12446624694449082 0.14033363917740382 0.17730537001339172 -0.13417818089464437 -0.16460187281877875 0.0059975804266727325 0.1490014013708879 0.007872918691913977 -0.007123530455921512 -0.1830784663693735 0.21093422613904494 0.13052239231834362 -0.05064120647963954 -0.2534763604123942 0.19354161104506956 -0.022899429442532704 -0.26826681357532756 -0.14334573730271533 0.0727052255078217 0.08258636399697872 -0.33944686808325986 -0.23879676394358504 0.08338771538619716 0.491204215628391 0.22673598466266953 0.02371650549727866 0.03966732206413631 0.028317778707303898 0.014125162973736005 0.02317184861302768 0.17558750680541707 0.11986324792369589
-0.05054262189886857 0.07163401557748339 -0.105958834209499 -0.109182687444463 0.003481986276117066 0.047548857509357556 0.02755586305790192 0.2626803689926637 0.14662218240039912 -0.09484388967275276 0.17258243259499043 -0.04001770719723068 0.36871244720001883 -0.07255536779232294 -0.05393891939594092 0.07043169378320216 0.2880755838050085 0.09352188087417845 0.2899592036805247 0.06417061607109723 0.1908970441286305 -0.06425845939759764 -0.11963373985718354 0.16309778115559231 -0.07020190433662377 0.1374439088548461 -0.11023298757353953 -0.09009487799236832 0.04600792635686084 -0.3815419909550048 -0.08019822418701889 -0.04674298574410893 -0.26557775881011053 -0.3509160370412529 -0.06197629385182647 0.2674359305266288 0.45193611390715926 -0.21731340462658424 0.17434382635364945 -0.23342120683341586 0.4101629755888656 0.20219613393083413 0.1054517216167345 -0.03665187453821214 0.15267510454084415 -0.007829979727227099 0.11875965986027903 -0.00475306298246686 0.1598853119309188
0.11915368217155531 -0.2252239816187045 -0.204228009024445 0.25713281163342344 -0.14924343148241065 -0.26118350548553526 -0.13601770375990754 -0.01114093439539926 -0.42856931111586444 0.06806307227063076 0.14229754635074474 0.307953827887352 -0.9042397521094385 0.06167241235184967 0.27326555686768744 0.15099669610769548 -0.08554631889132383 -0.08449422711069354 0.1413292432029063 0.3824933656257126 -0.21872414998968526 0.029120874855703527 -0.025192494223018193 0.09460763139664835 -0.21019368124540974 -0.12934263596064613 -0.10284019991264697 -0.011181786707485708 0.057096770672066186 0.32089824386895355 0.15787048200667908 0.09745208253642035 -0.22753037517851948 0.06287492559734827 -0.011569684441489146 -0.21796049889592026 -0.7780398097099122 0.24237651106087463 -0.19245976777307192 0.2141552430271393 -0.9996072535187308 -0.16718780264882926 0.22344182389670464 -0.16469202841916689 0.011432884900367923 -0.04596604370386287 0.21382810643581268 0.271215360339727 -0.09741705660133039
-0.004146766148770242 0.2177182492574779 0.024690402742098883 -0.1572925276040163 0.14312022016116172 -0.08979283576805491 -0.0077306210508164 -0.2708699901311927 1.0346144359912421 0.11025708144212502 0.013697050597868798 0.28189559915021245 0.6369760550281103 0.02234254860106033 -0.03293222087439113 0.16679300865080995 -0.05585266121973985 -0.14961173674375502 -0.36882325016127177 0.13725334301728506 -0.04870042853768314 -0.203824872305019 -0.38893990940586126 0.033538818498217327 0.054287997413047295 0.2535814458336098 -0.2029341338750716 0.06006782716261855 -0.43811181819146455 -0.023944045003300815 -0.12137425151530776 0.10771281871913219 -0.12839297775132286 -0.13384987520998684 -0.31749767688731034 -0.26080091441712777 0.43146506159525955 -0.16272446601632135 -0.3967153366086666 -0.011603438165710567 0.627561273456027 -0.22540746477221107 -0.24353134568315254 -0.09590135649993867 0.10478304780028164 0.07995627536651295 0.17194235925621165 0.2157909957204252 -0.3227677733495757
-0.00345551134842903 -0.09367736843307517 -0.2050811560703968 -0.19835963327535752 -0.13422874618449332 -0.22706958708487307 0.021399789518884493 0.11184643709294495 -0.056107957271146196 -0.04687075055621291 -0.02987245256950976 -0.3143919511583272 -0.05362641200964222 0.21180986288238568 -0.042846090425566336 -0.4219641452740901 0.005186738066942187 -0.1073118746034325 0.33331562444621915 -0.3776886618469925 -0.15184390777351597 0.09959270416464666 0.38833070607552694 -0.0875972127206287 0.05574560897822539 0.010158123459173052 -0.14182955998023808 -0.09379157198487753 0.07099167476461435 -0.28605183620005203 0.14880764699515353 0.09987492168755352 -0.2529781808145099 -0.3816518067423181 0.3936999523292835 0.051021671325525764 0.077997052990329 -0.006122390740370393 -0.12714521457898662 -0.1373952227750507 -0.020104519555484267 0.21423521456549527 0.23904916735305098 0.07627101402512382 -0.1421703693086731 0.0990159682146659 -0.12476846348056339 0.00839886306852422 0.022808988231198826
0.24729764887207445 -0.08137456830901055 0.16731721619712414 0.07782249099455751 0.1892335931834569 0.05851328852203491 0.20414814997270764 -0.05227210132539925 -0.07810927305351051 0.05583279083751018 0.0020539766244178814 0.024858125251028457 -0.1570604375369764 -0.05855126950936326 0.21954498482370916 0.06249777303104836 0.02450311745876426 -0.24585909234449943 0.00212805939424327 -0.18971185143281133 -0.15707300485518552 -0.0360402955752723 0.012098159093324352 -0.13756740497073622 -0.12625598852350073 0.01661600706172267 -0.027985037741045517 -0.05330583627881799 -0.22097489486222277 -0.08039615555200334 0.0851136418154601 0.024361494836133868 0.024666722629650473 0.17884527747339668 0.12043016854292563 0.09916912414396742 -0.4381698940397477 -0.11898793822257217 0.08730946312412595 -0.2029628014937146 0.04855323492609264 -0.19993475666874194 0.2089634956948676 -0.1563867118925648 0.18827684485820456 0.1919366284396118 -0.0906882732874692 0.21418366537150063 -0.20076083509427134
0.19242157260581855 -0.06518534499730083 -0.03322634730922794 -0.21062737913681231 0.05567190550811962 -0.12690558518380105 0.09198024208769262 0.16501612444395558 -0.5432961711839721 -0.32879902187184834 0.2843467569432155 0.17359794992407268 -0.5216617086827379 -0.06641348097808514 0.03412552122495133 0.15327650423526562 0.0704437501177513 0.15389902481887324 0.14707411593407343 -0.10055918422942178 0.2389504104471975 -0.050470892758944313 0.0933325616637352 -0.24622549739569236 -0.016114320241429114 -0.2549672144386766 0.14754300733628106 -0.27526379927515493 -0.1596529082358301 -0.2720602882967525 -0.1986584793152034 0.0044526189850683795 -0.07921070889508675 -0.1839942972922099 0.35931340815667656 0.31818245511477206 -0.4223372025956187 0.20153317731398818 0.21124570961009848 -0.10542544953392256 -0.33777338379212263 -0.050659582576751086 0.03436958049097688 -0.07842329204831783 -0.18813962733153788 0.15259614339425026 0.22947847369795377 -0.10268530490273353 0.24434626129070708
-0.08474029772217334 0.08684108903695709 0.273268443179792 0.14995947288292627 -0.2449065709736131 -0.035896769398112954 -0.0681789542291992 -0.11358031338976032 0.6526319483821885 -0.10394491327938565 0.10546094865007595 0.0029345802218490188 0.4888549711696832 -0.24470593604585933 0.09537326705870858 0.1442853177291992 -0.11359598816073847 0.07867761981430971 0.060157398732642885 -0.15908236926735173 0.11598263164745892 0.2619193367473421 -0.2680039968663378 0.21898629444254747 -0.06435632224518065 0.18400995463348174 -0.18364798156598325 0.11938057500785743 -0.15355803378642977 -0.1620446299957604 0.2590034457889036 0.08632306066810552 0.15682330962713947 -0.09276413371541165 0.05118841815452565 0.06301569672076626 0.696022721081878 0.11869446771076818 -0.17314433447175662 -0.03709353924170531 0.5686281351919535 0.1064504727530505 0.23522686315466262 0.1872612557557755 -0.19297784905788726 -0.0682795656509784 -0.21552585316989945 -0.26113512750590306 -0.23883494019132231
-0.17474250286940063 0.14665595486210176 0.09216881220230749 0.16418000538593336 -0.11657231842662938 -0.18987483731197796 0.2602114023963871 0.17969784255370375 0.2530378659736879 -0.4293364456166415 -0.057579056939941656 -0.0903556775312807 0.13690047988991538 0.22744404666432577 0.02079694448941638 -0.22429519987021823 -0.10911057683863598 0.16748281253807606 0.4292990320832558 0.06036303772336244 0.08943887182392396 -0.08682409885756681 -0.14433298388193846 0.15158487103085605 0.2399991993902349 0.2537217317492059 -0.1793564364077395 0.04704457910594345 0.1707745721778239 -0.2041040091874603 0.16226725973086853 0.2401937739372348 0.12380831704035139 -0.05369811069280916 0.2686066454175939 0.2481811841202187 0.19058336869806086 -0.13950166034646458 0.15348337778033158 -0.21050569196356964 0.2496334020799439 0.1012539328911485 0.033050049004340776 0.07795663749817289 -0.011616892101354415 0.2635150783377031 -0.1437511192735332 -0.26888220671086904 0.2503700259170727
-0.10361725607411743 -0.12232156876023256 -0.04654201697501606 0.05234359811774486 0.26793577788623096 0.11438309408601272 -0.10013794787488076 0.019119423599917473 -0.39910551229875335 -0.3370602247708594 -0.024988521832273652 -0.5211368136840143 -0.42842898458402134 -0.061131677031456416 -0.16495694781526554 -0.16325632621273373 0.2811890969475267 -0.19209312256635103 0.3952187259773309 -0.14786481783119357 0.15463916227150093 0.0672659402171934 0.14776717305117973 -0.09033008117617985 -0.19692967658897145 -0.13503334771395603 -0.06260894779988539 -0.12173666254583956 0.3405898424813928 -0.5313807542237742 -0.20379166346864386 -0.13629322745184777 -0.1672805653788783 -0.17164418282200616 0.3790595598779103 0.19212987926310646 -0.05147701129731262 0.22541582006931868 0.06320217583492392 0.0501404112115845 -0.07236613375488773 0.19071126540975689 0.06912055729198036 -0.23306605169128905 0.15774167631412783 -0.24388267940787417 0.13578128100353298 -0.06469226337556927 0.12096526311111504
0.05016019988583453 -0.20439030396844032 0.021221520938460747 -0.23470958705986852 -0.14263483886508288 -0.06522152286792413 -0.11813339121253039 0.08915823734613548 0.04409129266132062 -0.32791936937578425 0.14299432329030812 -0.400543813727925 -0.10886276626288875 -0.08393322292885544 0.019491496390265872 -0.4757884537716571 0.3858214907711946 -0.1604837406196185 0.18524746496560693 -0.36460894775832164 0.17097712242083846 0.05103620091866884 0.019854397721206972 0.14041186875585293 -0.13509568436836922 -0.24348400257040156 0.13745954331468294 -0.10163443165671901 0.3775085694426371 0.0026651672402470787 0.07120740673884207 -0.21865682897623878 0.1951100089006924 -0.17548186880343125 0.0653366827791944 0.044376929973907346 -0.014594063558303274 -0.25221770952837064 0.18015640626027565 0.07093608634394916 0.15713151069497522 0.14135591399067687 0.23325384506523456 -0.20175617126812068 0.11919232588805956 -0.1352569253943971 -0.2735874535029783 -0.20895638045752785 -0.20813546574705302
0.14515018522603157 -0.06721621035544359 -0.00990431958678989 0.06260383508573619 -0.12806055050530343 0.07630158139078708 0.09456671707107173 0.23224951507473307 -0.9055782590140964 0.18087698040229255 0.37789484900961245 0.1332602999280122 -0.9505957343361788 -0.12567977718192358 -0.22172144115978215 0.16750577582478432 -0.06912713734379579 0.03280221549121376 0.10963689135698222 -0.2658197618133011 -0.15745080983225235 0.1779735749588916 0.14138861144529385 0.233917088645816 0.2248663885417715 -0.22376318252281738 0.2182543850146647 -0.2520768667391979 0.09240477279924043 -0.04704139062431979 0.25181831540912564 0.05253693415992955 -0.17086492412891793 -0.009576501947667265 0.14706088411082846 -0.03193662341570356 -0.8494421401893654 0.32814710724204155 0.3854565763052591 0.27268296497287337 -1.012166412030996 0.3587396741723792 -0.022896254887048162 0.1841244246465426 -0.17815190553219729 -0.1941885610390115 0.22414340839014174 -0.11821481574244563 -0.13177764044199364
0.0005777452205432687 0.270390666466418 0.1849192359727263 -0.05715738423221062 0.27177134386933693 0.16351816016595955 0.18853926785221153 0.0805309754420293 0.4028807291364714 0.2739663503687842 -0.2144037712397394 0.2899132753104367 0.4898620258642517 0.22590452267222688 -0.012590895130338675 0.0100131738760231 -0.1996834387838696 -0.1006944985755727 -0.4418076120770504 0.09958606482201426 0.19344313075516956 -0.12248489907458074 0.002976627525730797 0.1582592395819024 0.1519465383973263 -0.046778395941844686 0.07668850913897134 0.16032575868135762 -0.20686723045945565 -0.16267693642362238 0.040685493641698656 -0.2676625221337152 0.22168868283292575 -0.03966095582491271 -0.32112865017244885 -0.22051749878402543 0.2882994229171884 -0.1526178765083331 -0.20652412980406334 -0.12416155051811785 0.4038695059255432 -0.27821141329841953 4.375136298490068e-05 0.17105647389391676 -0.2737117758097351 -0.18700899550923755 -0.09643969522795806 -0.1576714912136758 0.020056835027677362
-1.4660334989844668 -1.4676471724894715 -0.26288184258705444 -0.7314794022462506 0.7488122178077586 1.6657103828715265 0.2852152797954285 0.7042156950215912 -0.527600442153979 -0.6332566404706613 0.4936652297932872 0.773966543583268 0.09124212275266712 1.2031587525705072 -0.38666534834449007 0.4221815530116671 0.3579542321505023 -0.8141399190420635 -0.7979323866550094 1.393393895933487 -0.7403521315321682 -0.49043760685247434 -0.0625827722915453 0.3421537336097654 -1.006606669082145 -0.809143202304151 -0.235372482568768 -0.4970563486334851 1.2897906686629736 -0.5655114730063056
1.100889356718837 0.8985224170419696 -0.08299270199286796 -0.42042492000023635 -1.75148226982265 -0.4117368552591576 0.0010658009320470068 -0.38230965802900446 -0.10986728323102436 -0.5562022912570821 0.10381514099322367 -1.3566927405678237 0.05770188170504775 -0.3467415239254936 1.5007452166480333 -1.0354800598336364 0.5809074517216705 0.3816797987606198 0.24582286503660994 -0.9844848319624833 1.5256350391132538 -0.6262757483819698 -0.49264573576551385 -1.0926245746177583 0.7806238045937357 -0.2910952333182271 -1.029211185141138 -0.5443760122605057 -1.7661141229582809 0.720645856344121
0.12646746321421917 0.9295547065339913 0.5808318853686394 0.415127047315094 1.2421466562066188 -1.1724970440655351 0.6241549443276465 -1.2182692652119829 -0.1979342611941345 0.6202175501784575 -0.930856234013162 0.4139069170802322 -1.1213223528145058 -0.18796569701970828 -1.3520742916984645 0.10733649734106443 -1.3170842261598747 -0.1651523698228201 0.42627073135817967 -0.4818726391946859 -0.8246678734983559 0.5731520892690193 -0.3605163092008014 0.1267196941514418 0.12090688225177817 0.2304450487072056 1.111337704556664 0.567845952179672 -0.02171251311961627 -0.9022258199891925